<?xml version="1.0"?>
<opencv_storage>
<cascade>
  <stageType>BOOST</stageType>
  <featureType>HAAR</featureType>
  <height>32</height>
  <width>32</width>
  <stageParams>
    <boostType>GAB</boostType>
    <minHitRate>9.9500000476837158e-01</minHitRate>
    <maxFalseAlarm>5.0000000000000000e-01</maxFalseAlarm>
    <weightTrimRate>9.4999999999999996e-01</weightTrimRate>
    <maxDepth>1</maxDepth>
    <maxWeakCount>100</maxWeakCount></stageParams>
  <featureParams>
    <maxCatCount>0</maxCatCount>
    <featSize>1</featSize>
    <mode>BASIC</mode></featureParams>
  <stageNum>25</stageNum>
  <stages>
    <!-- stage 0 -->
    <_>
      <maxWeakCount>2</maxWeakCount>
      <stageThreshold>-4.5928839594125748e-02</stageThreshold>
      <weakClassifiers>
        <_>
          <internalNodes>
            0 -1 3 -1.1781178414821625e-01</internalNodes>
          <leafValues>
            8.9189189672470093e-01 -5.5294120311737061e-01</leafValues></_>
        <_>
          <internalNodes>
            0 -1 39 -2.2854018607176840e-04</internalNodes>
          <leafValues>
            -9.1514062881469727e-01 5.0701236724853516e-01</leafValues></_></weakClassifiers></_>
    <!-- stage 1 -->
    <_>
      <maxWeakCount>4</maxWeakCount>
      <stageThreshold>-2.9141834378242493e-01</stageThreshold>
      <weakClassifiers>
        <_>
          <internalNodes>
            0 -1 40 -2.2168429859448224e-04</internalNodes>
          <leafValues>
            -9.2592591047286987e-01 5.2941179275512695e-01</leafValues></_>
        <_>
          <internalNodes>
            0 -1 21 -1.9329879432916641e-02</internalNodes>
          <leafValues>
            8.0927300453186035e-01 -5.5139219760894775e-01</leafValues></_>
        <_>
          <internalNodes>
            0 -1 35 -1.9991080625914037e-04</internalNodes>
          <leafValues>
            -8.4679001569747925e-01 5.3569018840789795e-01</leafValues></_>
        <_>
          <internalNodes>
            0 -1 70 -1.4199601486325264e-02</internalNodes>
          <leafValues>
            6.5020960569381714e-01 -6.5327370166778564e-01</leafValues></_></weakClassifiers></_>
    <!-- stage 2 -->
    <_>
      <maxWeakCount>2</maxWeakCount>
      <stageThreshold>-5.6454915553331375e-02</stageThreshold>
      <weakClassifiers>
        <_>
          <internalNodes>
            0 -1 22 -5.3993180394172668e-02</internalNodes>
          <leafValues>
            1. -4.9450549483299255e-01</leafValues></_>
        <_>
          <internalNodes>
            0 -1 90 -1.5851075295358896e-04</internalNodes>
          <leafValues>
            -9.3684756755828857e-01 4.3805056810379028e-01</leafValues></_></weakClassifiers></_>
    <!-- stage 3 -->
    <_>
      <maxWeakCount>3</maxWeakCount>
      <stageThreshold>1.8469828367233276e-01</stageThreshold>
      <weakClassifiers>
        <_>
          <internalNodes>
            0 -1 26 -2.7349009178578854e-04</internalNodes>
          <leafValues>
            -9.0909093618392944e-01 3.3333334326744080e-01</leafValues></_>
        <_>
          <internalNodes>
            0 -1 41 -4.1275803232565522e-04</internalNodes>
          <leafValues>
            -9.1667258739471436e-01 3.3663007616996765e-01</leafValues></_>
        <_>
          <internalNodes>
            0 -1 31 -1.9673523306846619e-01</internalNodes>
          <leafValues>
            9.4410949945449829e-01 -4.8526513576507568e-01</leafValues></_></weakClassifiers></_>
    <!-- stage 4 -->
    <_>
      <maxWeakCount>3</maxWeakCount>
      <stageThreshold>-7.6243704557418823e-01</stageThreshold>
      <weakClassifiers>
        <_>
          <internalNodes>
            0 -1 20 -3.7149380892515182e-02</internalNodes>
          <leafValues>
            6.9565218687057495e-01 -6.0526317358016968e-01</leafValues></_>
        <_>
          <internalNodes>
            0 -1 60 2.0838921773247421e-04</internalNodes>
          <leafValues>
            3.7846937775611877e-01 -9.6292072534561157e-01</leafValues></_>
        <_>
          <internalNodes>
            0 -1 56 -6.7360512912273407e-03</internalNodes>
          <leafValues>
            6.4395344257354736e-01 -5.3564321994781494e-01</leafValues></_></weakClassifiers></_>
    <!-- stage 5 -->
    <_>
      <maxWeakCount>4</maxWeakCount>
      <stageThreshold>-9.5784014463424683e-01</stageThreshold>
      <weakClassifiers>
        <_>
          <internalNodes>
            0 -1 58 -3.2853141427040100e-02</internalNodes>
          <leafValues>
            7.2222220897674561e-01 -4.6511629223823547e-01</leafValues></_>
        <_>
          <internalNodes>
            0 -1 8 -3.0370480380952358e-03</internalNodes>
          <leafValues>
            6.6686242818832397e-01 -4.3030908703804016e-01</leafValues></_>
        <_>
          <internalNodes>
            0 -1 84 4.9011578084900975e-05</internalNodes>
          <leafValues>
            4.4386747479438782e-01 -7.9721486568450928e-01</leafValues></_>
        <_>
          <internalNodes>
            0 -1 51 -2.3658458143472672e-02</internalNodes>
          <leafValues>
            8.4649109840393066e-01 -5.0628226995468140e-01</leafValues></_></weakClassifiers></_>
    <!-- stage 6 -->
    <_>
      <maxWeakCount>4</maxWeakCount>
      <stageThreshold>-6.2440991401672363e-01</stageThreshold>
      <weakClassifiers>
        <_>
          <internalNodes>
            0 -1 18 2.1093300892971456e-04</internalNodes>
          <leafValues>
            -5.6626504659652710e-01 8.4615385532379150e-01</leafValues></_>
        <_>
          <internalNodes>
            0 -1 64 5.2392780780792236e-03</internalNodes>
          <leafValues>
            -4.5400831103324890e-01 8.6564302444458008e-01</leafValues></_>
        <_>
          <internalNodes>
            0 -1 67 1.7277419101446867e-04</internalNodes>
          <leafValues>
            -4.5168259739875793e-01 9.6926862001419067e-01</leafValues></_>
        <_>
          <internalNodes>
            0 -1 53 3.8302998291328549e-04</internalNodes>
          <leafValues>
            -4.5574721693992615e-01 8.4754610061645508e-01</leafValues></_></weakClassifiers></_>
    <!-- stage 7 -->
    <_>
      <maxWeakCount>5</maxWeakCount>
      <stageThreshold>-2.8732463717460632e-01</stageThreshold>
      <weakClassifiers>
        <_>
          <internalNodes>
            0 -1 48 -3.3520201686769724e-03</internalNodes>
          <leafValues>
            8.6206895112991333e-01 -4.1935482621192932e-01</leafValues></_>
        <_>
          <internalNodes>
            0 -1 5 -1.2787104351446033e-03</internalNodes>
          <leafValues>
            5.5106902122497559e-01 -6.3220387697219849e-01</leafValues></_>
        <_>
          <internalNodes>
            0 -1 52 9.8106986843049526e-04</internalNodes>
          <leafValues>
            4.2311379313468933e-01 -8.2849746942520142e-01</leafValues></_>
        <_>
          <internalNodes>
            0 -1 61 -3.1253679189831018e-03</internalNodes>
          <leafValues>
            9.4751805067062378e-01 -4.4025784730911255e-01</leafValues></_>
        <_>
          <internalNodes>
            0 -1 63 1.2594171566888690e-03</internalNodes>
          <leafValues>
            -4.0189480781555176e-01 9.1794490814208984e-01</leafValues></_></weakClassifiers></_>
    <!-- stage 8 -->
    <_>
      <maxWeakCount>4</maxWeakCount>
      <stageThreshold>-5.3359425067901611e-01</stageThreshold>
      <weakClassifiers>
        <_>
          <internalNodes>
            0 -1 6 -4.9619409255683422e-03</internalNodes>
          <leafValues>
            4.1538462042808533e-01 -7.1929824352264404e-01</leafValues></_>
        <_>
          <internalNodes>
            0 -1 28 -6.8314366217236966e-06</internalNodes>
          <leafValues>
            4.5394814014434814e-01 -5.9337341785430908e-01</leafValues></_>
        <_>
          <internalNodes>
            0 -1 74 -5.6985148694366217e-04</internalNodes>
          <leafValues>
            -7.9553365707397461e-01 3.6189258098602295e-01</leafValues></_>
        <_>
          <internalNodes>
            0 -1 42 8.6810672655701637e-05</internalNodes>
          <leafValues>
            4.9145606160163879e-01 -6.3013672828674316e-01</leafValues></_></weakClassifiers></_>
    <!-- stage 9 -->
    <_>
      <maxWeakCount>4</maxWeakCount>
      <stageThreshold>-7.2733587026596069e-01</stageThreshold>
      <weakClassifiers>
        <_>
          <internalNodes>
            0 -1 9 -5.1465444266796112e-03</internalNodes>
          <leafValues>
            7.0731705427169800e-01 -5.3086417913436890e-01</leafValues></_>
        <_>
          <internalNodes>
            0 -1 83 1.0650802403688431e-02</internalNodes>
          <leafValues>
            -4.1211637854576111e-01 7.6573336124420166e-01</leafValues></_>
        <_>
          <internalNodes>
            0 -1 66 2.0842696540057659e-03</internalNodes>
          <leafValues>
            -3.6995488405227661e-01 8.8484692573547363e-01</leafValues></_>
        <_>
          <internalNodes>
            0 -1 87 -1.7365187522955239e-04</internalNodes>
          <leafValues>
            -5.4219198226928711e-01 5.8559960126876831e-01</leafValues></_></weakClassifiers></_>
    <!-- stage 10 -->
    <_>
      <maxWeakCount>5</maxWeakCount>
      <stageThreshold>-2.8348642587661743e-01</stageThreshold>
      <weakClassifiers>
        <_>
          <internalNodes>
            0 -1 7 -9.8936930298805237e-03</internalNodes>
          <leafValues>
            8.1250000000000000e-01 -4.4444444775581360e-01</leafValues></_>
        <_>
          <internalNodes>
            0 -1 54 -1.4491656795144081e-02</internalNodes>
          <leafValues>
            6.0526216030120850e-01 -4.3976438045501709e-01</leafValues></_>
        <_>
          <internalNodes>
            0 -1 19 -1.6260663047432899e-02</internalNodes>
          <leafValues>
            4.4073882699012756e-01 -6.5799891948699951e-01</leafValues></_>
        <_>
          <internalNodes>
            0 -1 75 -1.6101999208331108e-03</internalNodes>
          <leafValues>
            8.8119208812713623e-01 -4.5139184594154358e-01</leafValues></_>
        <_>
          <internalNodes>
            0 -1 2 8.2122151070507243e-06</internalNodes>
          <leafValues>
            -4.3365111947059631e-01 7.3597639799118042e-01</leafValues></_></weakClassifiers></_>
    <!-- stage 11 -->
    <_>
      <maxWeakCount>5</maxWeakCount>
      <stageThreshold>-6.9063705205917358e-01</stageThreshold>
      <weakClassifiers>
        <_>
          <internalNodes>
            0 -1 69 5.3452905267477036e-03</internalNodes>
          <leafValues>
            -4.4186046719551086e-01 6.6666668653488159e-01</leafValues></_>
        <_>
          <internalNodes>
            0 -1 82 -3.1994204618968070e-05</internalNodes>
          <leafValues>
            5.0352478027343750e-01 -5.2484005689620972e-01</leafValues></_>
        <_>
          <internalNodes>
            0 -1 86 2.8924125945195556e-04</internalNodes>
          <leafValues>
            3.2435789704322815e-01 -8.0607032775878906e-01</leafValues></_>
        <_>
          <internalNodes>
            0 -1 49 -1.3466570817399770e-04</internalNodes>
          <leafValues>
            7.2485679388046265e-01 -4.3069612979888916e-01</leafValues></_>
        <_>
          <internalNodes>
            0 -1 25 7.2580864980409387e-06</internalNodes>
          <leafValues>
            -6.7108786106109619e-01 4.7991290688514709e-01</leafValues></_></weakClassifiers></_>
    <!-- stage 12 -->
    <_>
      <maxWeakCount>4</maxWeakCount>
      <stageThreshold>-3.7907195091247559e-01</stageThreshold>
      <weakClassifiers>
        <_>
          <internalNodes>
            0 -1 29 1.8562583718448877e-03</internalNodes>
          <leafValues>
            2.4705882370471954e-01 -9.4594591856002808e-01</leafValues></_>
        <_>
          <internalNodes>
            0 -1 55 -4.0579997003078461e-03</internalNodes>
          <leafValues>
            -9.0496659278869629e-01 2.8432792425155640e-01</leafValues></_>
        <_>
          <internalNodes>
            0 -1 77 4.1745445923879743e-04</internalNodes>
          <leafValues>
            -4.0049681067466736e-01 8.9448070526123047e-01</leafValues></_>
        <_>
          <internalNodes>
            0 -1 50 -1.9639362581074238e-03</internalNodes>
          <leafValues>
            6.7933261394500732e-01 -4.9483793973922729e-01</leafValues></_></weakClassifiers></_>
    <!-- stage 13 -->
    <_>
      <maxWeakCount>3</maxWeakCount>
      <stageThreshold>-3.2957142591476440e-01</stageThreshold>
      <weakClassifiers>
        <_>
          <internalNodes>
            0 -1 24 -1.2905623589176685e-04</internalNodes>
          <leafValues>
            -7.3584908246994019e-01 3.6231884360313416e-01</leafValues></_>
        <_>
          <internalNodes>
            0 -1 38 -5.2167577669024467e-03</internalNodes>
          <leafValues>
            9.5912742614746094e-01 -3.7154376506805420e-01</leafValues></_>
        <_>
          <internalNodes>
            0 -1 79 1.7568585462868214e-03</internalNodes>
          <leafValues>
            -3.2034650444984436e-01 9.6868795156478882e-01</leafValues></_></weakClassifiers></_>
    <!-- stage 14 -->
    <_>
      <maxWeakCount>3</maxWeakCount>
      <stageThreshold>-4.3655401468276978e-01</stageThreshold>
      <weakClassifiers>
        <_>
          <internalNodes>
            0 -1 71 1.0336064733564854e-03</internalNodes>
          <leafValues>
            -4.3157893419265747e-01 1.</leafValues></_>
        <_>
          <internalNodes>
            0 -1 23 7.6197425369173288e-04</internalNodes>
          <leafValues>
            4.8632118105888367e-01 -8.2331663370132446e-01</leafValues></_>
        <_>
          <internalNodes>
            0 -1 47 6.5849890233948827e-04</internalNodes>
          <leafValues>
            -4.9129623174667358e-01 8.6263775825500488e-01</leafValues></_></weakClassifiers></_>
    <!-- stage 15 -->
    <_>
      <maxWeakCount>3</maxWeakCount>
      <stageThreshold>2.3954816162586212e-02</stageThreshold>
      <weakClassifiers>
        <_>
          <internalNodes>
            0 -1 17 -3.1168299028649926e-04</internalNodes>
          <leafValues>
            -7.6190477609634399e-01 2.2499999403953552e-01</leafValues></_>
        <_>
          <internalNodes>
            0 -1 30 -5.9295518440194428e-05</internalNodes>
          <leafValues>
            5.1784658432006836e-01 -4.7898313403129578e-01</leafValues></_>
        <_>
          <internalNodes>
            0 -1 89 1.3549157301895320e-04</internalNodes>
          <leafValues>
            2.7793794870376587e-01 -1.</leafValues></_></weakClassifiers></_>
    <!-- stage 16 -->
    <_>
      <maxWeakCount>3</maxWeakCount>
      <stageThreshold>-1.4180478453636169e-01</stageThreshold>
      <weakClassifiers>
        <_>
          <internalNodes>
            0 -1 45 8.0683294072514400e-06</internalNodes>
          <leafValues>
            -5.6756758689880371e-01 5.8333331346511841e-01</leafValues></_>
        <_>
          <internalNodes>
            0 -1 46 2.5236688088625669e-03</internalNodes>
          <leafValues>
            -3.7300148606300354e-01 9.1867059469223022e-01</leafValues></_>
        <_>
          <internalNodes>
            0 -1 65 -1.8855154514312744e-02</internalNodes>
          <leafValues>
            9.0764814615249634e-01 -3.5213664174079895e-01</leafValues></_></weakClassifiers></_>
    <!-- stage 17 -->
    <_>
      <maxWeakCount>5</maxWeakCount>
      <stageThreshold>-4.7225669026374817e-01</stageThreshold>
      <weakClassifiers>
        <_>
          <internalNodes>
            0 -1 27 -4.5576402917504311e-03</internalNodes>
          <leafValues>
            8.3999997377395630e-01 -3.6082473397254944e-01</leafValues></_>
        <_>
          <internalNodes>
            0 -1 59 1.0242845164611936e-03</internalNodes>
          <leafValues>
            3.1505191326141357e-01 -9.6240115165710449e-01</leafValues></_>
        <_>
          <internalNodes>
            0 -1 68 -9.7207695944234729e-04</internalNodes>
          <leafValues>
            4.9690884351730347e-01 -5.7141911983489990e-01</leafValues></_>
        <_>
          <internalNodes>
            0 -1 4 -2.0473212935030460e-03</internalNodes>
          <leafValues>
            8.9525246620178223e-01 -3.3431237936019897e-01</leafValues></_>
        <_>
          <internalNodes>
            0 -1 43 -1.2458054698072374e-05</internalNodes>
          <leafValues>
            5.1911365985870361e-01 -5.8908033370971680e-01</leafValues></_></weakClassifiers></_>
    <!-- stage 18 -->
    <_>
      <maxWeakCount>3</maxWeakCount>
      <stageThreshold>-6.2191075086593628e-01</stageThreshold>
      <weakClassifiers>
        <_>
          <internalNodes>
            0 -1 13 2.1774259948870167e-05</internalNodes>
          <leafValues>
            -7.0491802692413330e-01 4.7540983557701111e-01</leafValues></_>
        <_>
          <internalNodes>
            0 -1 15 -8.4630737546831369e-05</internalNodes>
          <leafValues>
            7.1365487575531006e-01 -4.9029171466827393e-01</leafValues></_>
        <_>
          <internalNodes>
            0 -1 85 -8.5570563896908425e-06</internalNodes>
          <leafValues>
            6.3851290941238403e-01 -6.0702890157699585e-01</leafValues></_></weakClassifiers></_>
    <!-- stage 19 -->
    <_>
      <maxWeakCount>5</maxWeakCount>
      <stageThreshold>-2.8320744633674622e-01</stageThreshold>
      <weakClassifiers>
        <_>
          <internalNodes>
            0 -1 44 -1.5129533130675554e-03</internalNodes>
          <leafValues>
            6.5714287757873535e-01 -4.2528736591339111e-01</leafValues></_>
        <_>
          <internalNodes>
            0 -1 33 -1.2029433855786920e-03</internalNodes>
          <leafValues>
            6.8706822395324707e-01 -3.6357679963111877e-01</leafValues></_>
        <_>
          <internalNodes>
            0 -1 32 1.2458054698072374e-05</internalNodes>
          <leafValues>
            -5.9516388177871704e-01 5.3456091880798340e-01</leafValues></_>
        <_>
          <internalNodes>
            0 -1 34 8.3633698523044586e-05</internalNodes>
          <leafValues>
            -4.9075996875762939e-01 5.8232891559600830e-01</leafValues></_>
        <_>
          <internalNodes>
            0 -1 10 -6.4739651861600578e-05</internalNodes>
          <leafValues>
            5.4093551635742188e-01 -4.7624224424362183e-01</leafValues></_></weakClassifiers></_>
    <!-- stage 20 -->
    <_>
      <maxWeakCount>3</maxWeakCount>
      <stageThreshold>-1.6624011099338531e-01</stageThreshold>
      <weakClassifiers>
        <_>
          <internalNodes>
            0 -1 78 -9.4205662608146667e-03</internalNodes>
          <leafValues>
            7.5757575035095215e-01 -4.3820226192474365e-01</leafValues></_>
        <_>
          <internalNodes>
            0 -1 80 1.0253721848130226e-03</internalNodes>
          <leafValues>
            -3.2742252945899963e-01 8.3342474699020386e-01</leafValues></_>
        <_>
          <internalNodes>
            0 -1 76 -1.0891233250731602e-04</internalNodes>
          <leafValues>
            5.9938466548919678e-01 -5.2331721782684326e-01</leafValues></_></weakClassifiers></_>
    <!-- stage 21 -->
    <_>
      <maxWeakCount>4</maxWeakCount>
      <stageThreshold>-3.1776463985443115e-01</stageThreshold>
      <weakClassifiers>
        <_>
          <internalNodes>
            0 -1 1 -2.1023793146014214e-02</internalNodes>
          <leafValues>
            5.6097561120986938e-01 -4.5679011940956116e-01</leafValues></_>
        <_>
          <internalNodes>
            0 -1 11 -4.5562937157228589e-04</internalNodes>
          <leafValues>
            -9.0960067510604858e-01 2.8224581480026245e-01</leafValues></_>
        <_>
          <internalNodes>
            0 -1 88 -6.0380145441740751e-04</internalNodes>
          <leafValues>
            4.7234117984771729e-01 -5.3655636310577393e-01</leafValues></_>
        <_>
          <internalNodes>
            0 -1 16 -4.6889600344002247e-04</internalNodes>
          <leafValues>
            6.5704357624053955e-01 -4.4148072600364685e-01</leafValues></_></weakClassifiers></_>
    <!-- stage 22 -->
    <_>
      <maxWeakCount>3</maxWeakCount>
      <stageThreshold>-2.9894131422042847e-01</stageThreshold>
      <weakClassifiers>
        <_>
          <internalNodes>
            0 -1 12 2.0089333702344447e-05</internalNodes>
          <leafValues>
            -5.8208954334259033e-01 4.5454546809196472e-01</leafValues></_>
        <_>
          <internalNodes>
            0 -1 36 -1.2144611682742834e-03</internalNodes>
          <leafValues>
            6.0873168706893921e-01 -4.1768127679824829e-01</leafValues></_>
        <_>
          <internalNodes>
            0 -1 62 -2.8610363369807601e-04</internalNodes>
          <leafValues>
            8.6287558078765869e-01 -3.2558345794677734e-01</leafValues></_></weakClassifiers></_>
    <!-- stage 23 -->
    <_>
      <maxWeakCount>4</maxWeakCount>
      <stageThreshold>-3.8355368375778198e-01</stageThreshold>
      <weakClassifiers>
        <_>
          <internalNodes>
            0 -1 81 2.1971357055008411e-03</internalNodes>
          <leafValues>
            -3.6082473397254944e-01 8.3999997377395630e-01</leafValues></_>
        <_>
          <internalNodes>
            0 -1 73 -8.0683294072514400e-06</internalNodes>
          <leafValues>
            6.2943381071090698e-01 -3.5020041465759277e-01</leafValues></_>
        <_>
          <internalNodes>
            0 -1 72 -1.5106447972357273e-04</internalNodes>
          <leafValues>
            7.5347447395324707e-01 -3.0994334816932678e-01</leafValues></_>
        <_>
          <internalNodes>
            0 -1 57 7.0003129076212645e-04</internalNodes>
          <leafValues>
            -3.4221944212913513e-01 7.7705168724060059e-01</leafValues></_></weakClassifiers></_>
    <!-- stage 24 -->
    <_>
      <maxWeakCount>4</maxWeakCount>
      <stageThreshold>-3.1602644920349121e-01</stageThreshold>
      <weakClassifiers>
        <_>
          <internalNodes>
            0 -1 0 1.7914465570356697e-04</internalNodes>
          <leafValues>
            2.6315790414810181e-01 -7.3913043737411499e-01</leafValues></_>
        <_>
          <internalNodes>
            0 -1 14 3.7911739200353622e-03</internalNodes>
          <leafValues>
            -4.1637521982192993e-01 6.1477923393249512e-01</leafValues></_>
        <_>
          <internalNodes>
            0 -1 37 -2.2085377713665366e-04</internalNodes>
          <leafValues>
            5.9238010644912720e-01 -3.9444607496261597e-01</leafValues></_>
        <_>
          <internalNodes>
            0 -1 91 -4.7892313450574875e-03</internalNodes>
          <leafValues>
            -7.5518923997879028e-01 3.6602643132209778e-01</leafValues></_></weakClassifiers></_></stages>
  <features>
    <_>
      <rects>
        <_>
          0 1 8 2 -1.</_>
        <_>
          0 1 4 1 2.</_>
        <_>
          4 2 4 1 2.</_></rects>
      <tilted>0</tilted></_>
    <_>
      <rects>
        <_>
          0 8 8 24 -1.</_>
        <_>
          0 8 4 12 2.</_>
        <_>
          4 20 4 12 2.</_></rects>
      <tilted>0</tilted></_>
    <_>
      <rects>
        <_>
          0 11 4 3 -1.</_>
        <_>
          0 12 4 1 3.</_></rects>
      <tilted>0</tilted></_>
    <_>
      <rects>
        <_>
          0 14 28 18 -1.</_>
        <_>
          0 20 28 6 3.</_></rects>
      <tilted>0</tilted></_>
    <_>
      <rects>
        <_>
          0 16 6 4 -1.</_>
        <_>
          0 16 3 2 2.</_>
        <_>
          3 18 3 2 2.</_></rects>
      <tilted>0</tilted></_>
    <_>
      <rects>
        <_>
          0 16 8 6 -1.</_>
        <_>
          0 16 4 3 2.</_>
        <_>
          4 19 4 3 2.</_></rects>
      <tilted>0</tilted></_>
    <_>
      <rects>
        <_>
          0 16 16 12 -1.</_>
        <_>
          0 16 8 6 2.</_>
        <_>
          8 22 8 6 2.</_></rects>
      <tilted>0</tilted></_>
    <_>
      <rects>
        <_>
          0 17 9 13 -1.</_>
        <_>
          3 17 3 13 3.</_></rects>
      <tilted>0</tilted></_>
    <_>
      <rects>
        <_>
          0 17 8 6 -1.</_>
        <_>
          0 17 4 3 2.</_>
        <_>
          4 20 4 3 2.</_></rects>
      <tilted>0</tilted></_>
    <_>
      <rects>
        <_>
          0 22 8 5 -1.</_>
        <_>
          4 22 4 5 2.</_></rects>
      <tilted>0</tilted></_>
    <_>
      <rects>
        <_>
          0 25 1 6 -1.</_>
        <_>
          0 28 1 3 2.</_></rects>
      <tilted>0</tilted></_>
    <_>
      <rects>
        <_>
          0 28 6 3 -1.</_>
        <_>
          2 28 2 3 3.</_></rects>
      <tilted>0</tilted></_>
    <_>
      <rects>
        <_>
          0 29 2 3 -1.</_>
        <_>
          1 29 1 3 2.</_></rects>
      <tilted>0</tilted></_>
    <_>
      <rects>
        <_>
          0 30 8 1 -1.</_>
        <_>
          4 30 4 1 2.</_></rects>
      <tilted>0</tilted></_>
    <_>
      <rects>
        <_>
          1 6 12 5 -1.</_>
        <_>
          5 6 4 5 3.</_></rects>
      <tilted>0</tilted></_>
    <_>
      <rects>
        <_>
          1 26 7 2 -1.</_>
        <_>
          1 27 7 1 2.</_></rects>
      <tilted>0</tilted></_>
    <_>
      <rects>
        <_>
          2 25 18 1 -1.</_>
        <_>
          8 25 6 1 3.</_></rects>
      <tilted>0</tilted></_>
    <_>
      <rects>
        <_>
          2 30 6 2 -1.</_>
        <_>
          4 30 2 2 3.</_></rects>
      <tilted>0</tilted></_>
    <_>
      <rects>
        <_>
          3 7 2 4 -1.</_>
        <_>
          4 7 1 4 2.</_></rects>
      <tilted>0</tilted></_>
    <_>
      <rects>
        <_>
          3 11 26 21 -1.</_>
        <_>
          3 18 26 7 3.</_></rects>
      <tilted>0</tilted></_>
    <_>
      <rects>
        <_>
          3 17 12 15 -1.</_>
        <_>
          3 22 12 5 3.</_></rects>
      <tilted>0</tilted></_>
    <_>
      <rects>
        <_>
          3 17 15 6 -1.</_>
        <_>
          3 20 15 3 2.</_></rects>
      <tilted>0</tilted></_>
    <_>
      <rects>
        <_>
          4 16 24 8 -1.</_>
        <_>
          4 20 24 4 2.</_></rects>
      <tilted>0</tilted></_>
    <_>
      <rects>
        <_>
          4 28 6 4 -1.</_>
        <_>
          6 28 2 4 3.</_></rects>
      <tilted>0</tilted></_>
    <_>
      <rects>
        <_>
          4 29 6 2 -1.</_>
        <_>
          6 29 2 2 3.</_></rects>
      <tilted>0</tilted></_>
    <_>
      <rects>
        <_>
          5 0 6 6 -1.</_>
        <_>
          5 0 3 3 2.</_>
        <_>
          8 3 3 3 2.</_></rects>
      <tilted>0</tilted></_>
    <_>
      <rects>
        <_>
          5 1 3 3 -1.</_>
        <_>
          5 2 3 1 3.</_></rects>
      <tilted>0</tilted></_>
    <_>
      <rects>
        <_>
          6 21 16 3 -1.</_>
        <_>
          6 22 16 1 3.</_></rects>
      <tilted>0</tilted></_>
    <_>
      <rects>
        <_>
          6 22 2 2 -1.</_>
        <_>
          6 22 1 1 2.</_>
        <_>
          7 23 1 1 2.</_></rects>
      <tilted>0</tilted></_>
    <_>
      <rects>
        <_>
          6 29 6 3 -1.</_>
        <_>
          8 29 2 3 3.</_></rects>
      <tilted>0</tilted></_>
    <_>
      <rects>
        <_>
          7 6 3 12 -1.</_>
        <_>
          8 6 1 12 3.</_></rects>
      <tilted>0</tilted></_>
    <_>
      <rects>
        <_>
          7 6 18 22 -1.</_>
        <_>
          7 17 18 11 2.</_></rects>
      <tilted>0</tilted></_>
    <_>
      <rects>
        <_>
          7 7 10 2 -1.</_>
        <_>
          12 7 5 2 2.</_></rects>
      <tilted>0</tilted></_>
    <_>
      <rects>
        <_>
          7 15 9 3 -1.</_>
        <_>
          7 16 9 1 3.</_></rects>
      <tilted>0</tilted></_>
    <_>
      <rects>
        <_>
          7 20 3 11 -1.</_>
        <_>
          8 20 1 11 3.</_></rects>
      <tilted>0</tilted></_>
    <_>
      <rects>
        <_>
          7 28 3 4 -1.</_>
        <_>
          8 28 1 4 3.</_></rects>
      <tilted>0</tilted></_>
    <_>
      <rects>
        <_>
          8 8 2 16 -1.</_>
        <_>
          8 8 1 8 2.</_>
        <_>
          9 16 1 8 2.</_></rects>
      <tilted>0</tilted></_>
    <_>
      <rects>
        <_>
          8 19 2 3 -1.</_>
        <_>
          8 20 2 1 3.</_></rects>
      <tilted>0</tilted></_>
    <_>
      <rects>
        <_>
          8 22 12 3 -1.</_>
        <_>
          8 23 12 1 3.</_></rects>
      <tilted>0</tilted></_>
    <_>
      <rects>
        <_>
          8 30 3 2 -1.</_>
        <_>
          9 30 1 2 3.</_></rects>
      <tilted>0</tilted></_>
    <_>
      <rects>
        <_>
          9 29 3 3 -1.</_>
        <_>
          10 29 1 3 3.</_></rects>
      <tilted>0</tilted></_>
    <_>
      <rects>
        <_>
          10 0 6 1 -1.</_>
        <_>
          12 0 2 1 3.</_></rects>
      <tilted>0</tilted></_>
    <_>
      <rects>
        <_>
          10 12 6 2 -1.</_>
        <_>
          12 12 2 2 3.</_></rects>
      <tilted>0</tilted></_>
    <_>
      <rects>
        <_>
          10 21 4 8 -1.</_>
        <_>
          10 21 2 4 2.</_>
        <_>
          12 25 2 4 2.</_></rects>
      <tilted>0</tilted></_>
    <_>
      <rects>
        <_>
          10 24 15 2 -1.</_>
        <_>
          10 25 15 1 2.</_></rects>
      <tilted>0</tilted></_>
    <_>
      <rects>
        <_>
          11 4 2 2 -1.</_>
        <_>
          11 5 2 1 2.</_></rects>
      <tilted>0</tilted></_>
    <_>
      <rects>
        <_>
          11 14 14 2 -1.</_>
        <_>
          11 14 7 1 2.</_>
        <_>
          18 15 7 1 2.</_></rects>
      <tilted>0</tilted></_>
    <_>
      <rects>
        <_>
          11 21 21 3 -1.</_>
        <_>
          11 22 21 1 3.</_></rects>
      <tilted>0</tilted></_>
    <_>
      <rects>
        <_>
          11 22 10 3 -1.</_>
        <_>
          11 23 10 1 3.</_></rects>
      <tilted>0</tilted></_>
    <_>
      <rects>
        <_>
          12 10 6 3 -1.</_>
        <_>
          15 10 3 3 2.</_></rects>
      <tilted>0</tilted></_>
    <_>
      <rects>
        <_>
          12 13 3 6 -1.</_>
        <_>
          12 16 3 3 2.</_></rects>
      <tilted>0</tilted></_>
    <_>
      <rects>
        <_>
          12 19 10 9 -1.</_>
        <_>
          12 22 10 3 3.</_></rects>
      <tilted>0</tilted></_>
    <_>
      <rects>
        <_>
          12 31 12 1 -1.</_>
        <_>
          18 31 6 1 2.</_></rects>
      <tilted>0</tilted></_>
    <_>
      <rects>
        <_>
          13 2 3 16 -1.</_>
        <_>
          14 2 1 16 3.</_></rects>
      <tilted>0</tilted></_>
    <_>
      <rects>
        <_>
          13 3 14 21 -1.</_>
        <_>
          20 3 7 21 2.</_></rects>
      <tilted>0</tilted></_>
    <_>
      <rects>
        <_>
          13 5 4 12 -1.</_>
        <_>
          15 5 2 12 2.</_></rects>
      <tilted>0</tilted></_>
    <_>
      <rects>
        <_>
          13 18 6 8 -1.</_>
        <_>
          13 22 6 4 2.</_></rects>
      <tilted>0</tilted></_>
    <_>
      <rects>
        <_>
          13 23 1 3 -1.</_>
        <_>
          13 24 1 1 3.</_></rects>
      <tilted>0</tilted></_>
    <_>
      <rects>
        <_>
          14 20 10 12 -1.</_>
        <_>
          14 24 10 4 3.</_></rects>
      <tilted>0</tilted></_>
    <_>
      <rects>
        <_>
          14 29 6 3 -1.</_>
        <_>
          16 29 2 3 3.</_></rects>
      <tilted>0</tilted></_>
    <_>
      <rects>
        <_>
          15 3 4 2 -1.</_>
        <_>
          15 3 2 1 2.</_>
        <_>
          17 4 2 1 2.</_></rects>
      <tilted>0</tilted></_>
    <_>
      <rects>
        <_>
          15 8 6 12 -1.</_>
        <_>
          17 8 2 12 3.</_></rects>
      <tilted>0</tilted></_>
    <_>
      <rects>
        <_>
          15 16 2 2 -1.</_>
        <_>
          15 16 1 1 2.</_>
        <_>
          16 17 1 1 2.</_></rects>
      <tilted>0</tilted></_>
    <_>
      <rects>
        <_>
          15 17 3 8 -1.</_>
        <_>
          16 17 1 8 3.</_></rects>
      <tilted>0</tilted></_>
    <_>
      <rects>
        <_>
          15 17 12 6 -1.</_>
        <_>
          15 17 6 3 2.</_>
        <_>
          21 20 6 3 2.</_></rects>
      <tilted>0</tilted></_>
    <_>
      <rects>
        <_>
          15 20 5 12 -1.</_>
        <_>
          15 24 5 4 3.</_></rects>
      <tilted>0</tilted></_>
    <_>
      <rects>
        <_>
          16 13 4 3 -1.</_>
        <_>
          16 14 4 1 3.</_></rects>
      <tilted>0</tilted></_>
    <_>
      <rects>
        <_>
          17 15 2 3 -1.</_>
        <_>
          18 15 1 3 2.</_></rects>
      <tilted>0</tilted></_>
    <_>
      <rects>
        <_>
          17 20 13 3 -1.</_>
        <_>
          17 21 13 1 3.</_></rects>
      <tilted>0</tilted></_>
    <_>
      <rects>
        <_>
          17 26 5 6 -1.</_>
        <_>
          17 29 5 3 2.</_></rects>
      <tilted>0</tilted></_>
    <_>
      <rects>
        <_>
          18 4 2 24 -1.</_>
        <_>
          18 16 2 12 2.</_></rects>
      <tilted>0</tilted></_>
    <_>
      <rects>
        <_>
          18 19 4 3 -1.</_>
        <_>
          18 20 4 1 3.</_></rects>
      <tilted>0</tilted></_>
    <_>
      <rects>
        <_>
          18 22 3 1 -1.</_>
        <_>
          19 22 1 1 3.</_></rects>
      <tilted>0</tilted></_>
    <_>
      <rects>
        <_>
          19 29 1 2 -1.</_>
        <_>
          19 30 1 1 2.</_></rects>
      <tilted>0</tilted></_>
    <_>
      <rects>
        <_>
          19 30 9 2 -1.</_>
        <_>
          22 30 3 2 3.</_></rects>
      <tilted>0</tilted></_>
    <_>
      <rects>
        <_>
          20 12 2 12 -1.</_>
        <_>
          20 12 1 6 2.</_>
        <_>
          21 18 1 6 2.</_></rects>
      <tilted>0</tilted></_>
    <_>
      <rects>
        <_>
          20 30 12 2 -1.</_>
        <_>
          20 31 12 1 2.</_></rects>
      <tilted>0</tilted></_>
    <_>
      <rects>
        <_>
          22 14 1 3 -1.</_>
        <_>
          22 15 1 1 3.</_></rects>
      <tilted>0</tilted></_>
    <_>
      <rects>
        <_>
          22 20 9 12 -1.</_>
        <_>
          25 20 3 12 3.</_></rects>
      <tilted>0</tilted></_>
    <_>
      <rects>
        <_>
          23 15 3 3 -1.</_>
        <_>
          23 16 3 1 3.</_></rects>
      <tilted>0</tilted></_>
    <_>
      <rects>
        <_>
          23 17 6 4 -1.</_>
        <_>
          25 17 2 4 3.</_></rects>
      <tilted>0</tilted></_>
    <_>
      <rects>
        <_>
          24 23 8 1 -1.</_>
        <_>
          28 23 4 1 2.</_></rects>
      <tilted>0</tilted></_>
    <_>
      <rects>
        <_>
          24 26 3 2 -1.</_>
        <_>
          24 27 3 1 2.</_></rects>
      <tilted>0</tilted></_>
    <_>
      <rects>
        <_>
          26 5 6 26 -1.</_>
        <_>
          26 5 3 13 2.</_>
        <_>
          29 18 3 13 2.</_></rects>
      <tilted>0</tilted></_>
    <_>
      <rects>
        <_>
          27 2 2 1 -1.</_>
        <_>
          28 2 1 1 2.</_></rects>
      <tilted>0</tilted></_>
    <_>
      <rects>
        <_>
          27 26 2 4 -1.</_>
        <_>
          27 26 1 2 2.</_>
        <_>
          28 28 1 2 2.</_></rects>
      <tilted>0</tilted></_>
    <_>
      <rects>
        <_>
          27 28 2 4 -1.</_>
        <_>
          27 28 1 2 2.</_>
        <_>
          28 30 1 2 2.</_></rects>
      <tilted>0</tilted></_>
    <_>
      <rects>
        <_>
          28 4 1 10 -1.</_>
        <_>
          28 9 1 5 2.</_></rects>
      <tilted>0</tilted></_>
    <_>
      <rects>
        <_>
          28 5 3 21 -1.</_>
        <_>
          29 5 1 21 3.</_></rects>
      <tilted>0</tilted></_>
    <_>
      <rects>
        <_>
          30 31 2 1 -1.</_>
        <_>
          31 31 1 1 2.</_></rects>
      <tilted>0</tilted></_>
    <_>
      <rects>
        <_>
          31 0 1 2 -1.</_>
        <_>
          31 1 1 1 2.</_></rects>
      <tilted>0</tilted></_>
    <_>
      <rects>
        <_>
          31 12 1 16 -1.</_>
        <_>
          31 20 1 8 2.</_></rects>
      <tilted>0</tilted></_></features></cascade>
</opencv_storage>
